network unknown {
}
variable FACILITY_TYPE {
    type discrete [ 15 ] { Bakery, Catering, Childrens Services Facility, Daycare, Golden Diner, Grocery Store, Hospital, Liquor, Long Term Care, Mobile Food Dispenser, Mobile Food Preparer, Restaurant, School, Shared Kitchen, TAVERN };
}
variable HAS_INSP_SERIOUS_VIOL {
    type discrete [ 2 ] { 0, 1 };
}
variable IS_HIGH_BELOW_POVERTY_LEVEL {
    type discrete [ 2 ] { 0, 1 };
}
variable IS_HIGH_CRIME_AREA {
    type discrete [ 2 ] { 0, 1 };
}
variable IS_HIGH_UNEMPLOYMENT_RATE {
    type discrete [ 2 ] { 0, 1 };
}
variable IS_LOW_HEALTH_AREA {
    type discrete [ 2 ] { 0, 1 };
}
variable IS_LOW_PER_CAPITA_INCOME {
    type discrete [ 2 ] { 0, 1 };
}
variable NO_VIOLATIONS {
    type discrete [ 2 ] { 0, 1 };
}
variable RESULTS {
    type discrete [ 2 ] { 0, 1 };
}
variable VIOLATIONS_ON_FACILITIES_AND_REGULATIONS {
    type discrete [ 2 ] { 0, 1 };
}
variable VIOLATIONS_ON_FOOD_SAFETY_AND_QUALITY {
    type discrete [ 2 ] { 0, 1 };
}
variable VIOLATIONS_ON_HYGIENE_AND_FOOD_SECURITY {
    type discrete [ 2 ] { 0, 1 };
}
variable VIOLATIONS_ON_INSTRUMENT_STORAGE_AND_MAINTENANCE {
    type discrete [ 2 ] { 0, 1 };
}
variable VIOLATIONS_ON_MANAGEMENT_AND_SUPERVISION {
    type discrete [ 2 ] { 0, 1 };
}
variable VIOLATIONS_ON_TEMPERATURE_AND_SPECIAL_PROCEDURES {
    type discrete [ 2 ] { 0, 1 };
}
probability ( FACILITY_TYPE | VIOLATIONS_ON_MANAGEMENT_AND_SUPERVISION, VIOLATIONS_ON_TEMPERATURE_AND_SPECIAL_PROCEDURES ) {
    ( 0, 0 ) 0.019800332778702162, 0.006988352745424293, 0.0524126455906822, 0.03394342762063228, 0.0064891846921797, 0.14459234608985025, 0.004159733777038269, 0.010149750415973378, 0.012312811980033278, 0.003826955074875208, 0.014309484193011647, 0.5883527454242928, 0.08718801996672212, 0.01264559068219634, 0.0028286189683860235;
    ( 0, 1 ) 0.014893617021276596, 0.002127659574468085, 0.00425531914893617, 0.002127659574468085, 0.002127659574468085, 0.08297872340425531, 0.0, 0.002127659574468085, 0.00851063829787234, 0.0, 0.002127659574468085, 0.8659574468085106, 0.00851063829787234, 0.00425531914893617, 0.0;
    ( 1, 0 ) 0.021478382147838215, 0.005857740585774059, 0.030404463040446306, 0.02398884239888424, 0.0005578800557880056, 0.28423988842398884, 0.0019525801952580196, 0.017294281729428172, 0.010878661087866108, 0.002510460251046025, 0.005578800557880056, 0.5090655509065551, 0.07308228730822873, 0.0041841004184100415, 0.00892608089260809;
    ( 1, 1 ) 0.015894955079474776, 0.0048375950241879755, 0.0034554250172771253, 0.0034554250172771253, 0.0, 0.09882515549412578, 0.002073255010366275, 0.000691085003455425, 0.0034554250172771253, 0.0, 0.000691085003455425, 0.8562543192812716, 0.009675190048375951, 0.000691085003455425, 0.0;

}
probability ( HAS_INSP_SERIOUS_VIOL | NO_VIOLATIONS, VIOLATIONS_ON_HYGIENE_AND_FOOD_SECURITY, VIOLATIONS_ON_MANAGEMENT_AND_SUPERVISION ) {
    ( 0, 0, 0 ) 0.9055762081784386, 0.09442379182156134;
    ( 0, 0, 1 ) 0.0, 1.0;
    ( 0, 1, 0 ) 0.0, 1.0;
    ( 0, 1, 1 ) 0.0, 1.0;
    ( 1, 0, 0 ) 1.0, 0.0;
    ( 1, 0, 1 ) 0.5, 0.5;
    ( 1, 1, 0 ) 0.5, 0.5;
    ( 1, 1, 1 ) 0.5, 0.5;

}
probability ( IS_HIGH_BELOW_POVERTY_LEVEL | FACILITY_TYPE, IS_HIGH_CRIME_AREA ) {
    ( Bakery, 0 ) 0.8737864077669902, 0.1262135922330097;
    ( Bakery, 1 ) 0.1, 0.9;
    ( Catering, 0 ) 0.9180327868852459, 0.08196721311475409;
    ( Catering, 1 ) 0.2, 0.8;
    ( Childrens Services Facility, 0 ) 0.9870550161812298, 0.012944983818770227;
    ( Childrens Services Facility, 1 ) 0.39344262295081966, 0.6065573770491803;
    ( Daycare, 0 ) 0.9444444444444444, 0.05555555555555555;
    ( Daycare, 1 ) 0.43283582089552236, 0.5671641791044776;
    ( Golden Diner, 0 ) 0.896551724137931, 0.10344827586206896;
    ( Golden Diner, 1 ) 0.15384615384615385, 0.8461538461538461;
    ( Grocery Store, 0 ) 0.9222383720930233, 0.07776162790697674;
    ( Grocery Store, 1 ) 0.3126801152737752, 0.6873198847262247;
    ( Hospital, 0 ) 0.9583333333333334, 0.041666666666666664;
    ( Hospital, 1 ) 0.09090909090909091, 0.9090909090909091;
    ( Liquor, 0 ) 0.9611650485436893, 0.038834951456310676;
    ( Liquor, 1 ) 0.22727272727272727, 0.7727272727272727;
    ( Long Term Care, 0 ) 0.978494623655914, 0.021505376344086023;
    ( Long Term Care, 1 ) 0.13793103448275862, 0.8620689655172413;
    ( Mobile Food Dispenser, 0 ) 0.8518518518518519, 0.14814814814814814;
    ( Mobile Food Dispenser, 1 ) 0.0, 1.0;
    ( Mobile Food Preparer, 0 ) 0.13333333333333333, 0.8666666666666667;
    ( Mobile Food Preparer, 1 ) 0.030303030303030304, 0.9696969696969697;
    ( Restaurant, 0 ) 0.9396649861766141, 0.060335013823385915;
    ( Restaurant, 1 ) 0.34265734265734266, 0.6573426573426573;
    ( School, 0 ) 0.8992395437262357, 0.10076045627376426;
    ( School, 1 ) 0.3057553956834532, 0.6942446043165468;
    ( Shared Kitchen, 0 ) 0.9459459459459459, 0.05405405405405406;
    ( Shared Kitchen, 1 ) 0.2, 0.8;
    ( TAVERN, 0 ) 0.975609756097561, 0.024390243902439025;
    ( TAVERN, 1 ) 0.5, 0.5;

}
probability ( IS_HIGH_CRIME_AREA | IS_HIGH_UNEMPLOYMENT_RATE ) {
    ( 0 ) 0.9740827645051194, 0.025917235494880547;
    ( 1 ) 0.05711610486891386, 0.9428838951310862;

}
probability ( IS_HIGH_UNEMPLOYMENT_RATE | FACILITY_TYPE ) {
    ( Bakery ) 0.9247787610619469, 0.0752212389380531;
    ( Catering ) 0.8591549295774648, 0.14084507042253522;
    ( Childrens Services Facility ) 0.7308584686774942, 0.2691415313225058;
    ( Daycare ) 0.5608108108108109, 0.4391891891891892;
    ( Golden Diner ) 0.6666666666666666, 0.3333333333333333;
    ( Grocery Store ) 0.6903381642512078, 0.30966183574879225;
    ( Hospital ) 0.6857142857142857, 0.3142857142857143;
    ( Liquor ) 0.832, 0.168;
    ( Long Term Care ) 0.7377049180327869, 0.26229508196721313;
    ( Mobile Food Dispenser ) 0.875, 0.125;
    ( Mobile Food Preparer ) 0.6944444444444444, 0.3055555555555556;
    ( Restaurant ) 0.8852575995433138, 0.11474240045668617;
    ( School ) 0.6529850746268657, 0.34701492537313433;
    ( Shared Kitchen ) 0.8297872340425532, 0.1702127659574468;
    ( TAVERN ) 0.8367346938775511, 0.16326530612244897;

}
probability ( IS_LOW_HEALTH_AREA | IS_HIGH_BELOW_POVERTY_LEVEL, IS_HIGH_CRIME_AREA, IS_HIGH_UNEMPLOYMENT_RATE ) {
    ( 0, 0, 0 ) 0.9871416774802406, 0.012858322519759349;
    ( 0, 0, 1 ) 0.31092436974789917, 0.6890756302521008;
    ( 0, 1, 0 ) 0.0, 1.0;
    ( 0, 1, 1 ) 0.18061674008810572, 0.8193832599118943;
    ( 1, 0, 0 ) 1.0, 0.0;
    ( 1, 0, 1 ) 1.0, 0.0;
    ( 1, 1, 0 ) 0.0, 1.0;
    ( 1, 1, 1 ) 0.0555138784696174, 0.9444861215303826;

}
probability ( IS_LOW_PER_CAPITA_INCOME | IS_HIGH_BELOW_POVERTY_LEVEL, IS_HIGH_CRIME_AREA, IS_HIGH_UNEMPLOYMENT_RATE ) {
    ( 0, 0, 0 ) 0.9851362510322048, 0.01486374896779521;
    ( 0, 0, 1 ) 1.0, 0.0;
    ( 0, 1, 0 ) 1.0, 0.0;
    ( 0, 1, 1 ) 1.0, 0.0;
    ( 1, 0, 0 ) 0.6676829268292683, 0.3323170731707317;
    ( 1, 0, 1 ) 1.0, 0.0;
    ( 1, 1, 0 ) 1.0, 0.0;
    ( 1, 1, 1 ) 0.8117029257314329, 0.18829707426856715;

}
probability ( NO_VIOLATIONS | VIOLATIONS_ON_FACILITIES_AND_REGULATIONS ) {
    ( 0 ) 0.3689467312348668, 0.6310532687651331;
    ( 1 ) 1.0, 0.0;

}
probability ( RESULTS | HAS_INSP_SERIOUS_VIOL, VIOLATIONS_ON_FACILITIES_AND_REGULATIONS, VIOLATIONS_ON_FOOD_SAFETY_AND_QUALITY, VIOLATIONS_ON_INSTRUMENT_STORAGE_AND_MAINTENANCE ) {
    ( 0, 0, 0, 0 ) 0.020124580737901295, 0.9798754192620988;
    ( 0, 0, 0, 1 ) 0.04887218045112782, 0.9511278195488722;
    ( 0, 0, 1, 0 ) 0.1488095238095238, 0.8511904761904762;
    ( 0, 0, 1, 1 ) 0.07777777777777778, 0.9222222222222223;
    ( 0, 1, 0, 0 ) 0.05254648342764753, 0.9474535165723524;
    ( 0, 1, 0, 1 ) 0.0706713780918728, 0.9293286219081273;
    ( 0, 1, 1, 0 ) 0.18911174785100288, 0.8108882521489972;
    ( 0, 1, 1, 1 ) 0.3203463203463203, 0.6796536796536796;
    ( 1, 0, 0, 0 ) 0.0771513353115727, 0.9228486646884273;
    ( 1, 0, 0, 1 ) 0.15151515151515152, 0.8484848484848485;
    ( 1, 0, 1, 0 ) 0.25555555555555554, 0.7444444444444445;
    ( 1, 0, 1, 1 ) 0.3564356435643564, 0.6435643564356436;
    ( 1, 1, 0, 0 ) 0.18159509202453988, 0.8184049079754602;
    ( 1, 1, 0, 1 ) 0.3226072607260726, 0.6773927392739274;
    ( 1, 1, 1, 0 ) 0.41946308724832215, 0.5805369127516778;
    ( 1, 1, 1, 1 ) 0.571021571021571, 0.42897842897842897;

}
probability ( VIOLATIONS_ON_FACILITIES_AND_REGULATIONS ) {
    table 0.28700486448922863, 0.7129951355107713 ;
}
probability ( VIOLATIONS_ON_FOOD_SAFETY_AND_QUALITY | NO_VIOLATIONS, VIOLATIONS_ON_FACILITIES_AND_REGULATIONS, VIOLATIONS_ON_INSTRUMENT_STORAGE_AND_MAINTENANCE, VIOLATIONS_ON_MANAGEMENT_AND_SUPERVISION, VIOLATIONS_ON_TEMPERATURE_AND_SPECIAL_PROCEDURES ) {
    ( 0, 0, 0, 0, 0 ) 0.1407766990291262, 0.8592233009708737;
    ( 0, 0, 0, 0, 1 ) 0.71875, 0.28125;
    ( 0, 0, 0, 1, 0 ) 0.8040345821325648, 0.19596541786743515;
    ( 0, 0, 0, 1, 1 ) 0.6666666666666666, 0.3333333333333333;
    ( 0, 0, 1, 0, 0 ) 0.7375328083989501, 0.26246719160104987;
    ( 0, 0, 1, 0, 1 ) 0.7142857142857143, 0.2857142857142857;
    ( 0, 0, 1, 1, 0 ) 0.6144578313253012, 0.3855421686746988;
    ( 0, 0, 1, 1, 1 ) 0.5454545454545454, 0.45454545454545453;
    ( 0, 1, 0, 0, 0 ) 0.7741347905282332, 0.22586520947176686;
    ( 0, 1, 0, 0, 1 ) 0.6153846153846154, 0.38461538461538464;
    ( 0, 1, 0, 1, 0 ) 0.6018779342723005, 0.39812206572769954;
    ( 0, 1, 0, 1, 1 ) 0.41237113402061853, 0.5876288659793815;
    ( 0, 1, 1, 0, 0 ) 0.540508574807806, 0.459491425192194;
    ( 0, 1, 1, 0, 1 ) 0.3737704918032787, 0.6262295081967213;
    ( 0, 1, 1, 1, 0 ) 0.37917289486796213, 0.6208271051320379;
    ( 0, 1, 1, 1, 1 ) 0.2251655629139073, 0.7748344370860927;
    ( 1, 0, 0, 0, 0 ) 1.0, 0.0;
    ( 1, 0, 0, 0, 1 ) 0.5, 0.5;
    ( 1, 0, 0, 1, 0 ) 0.5, 0.5;
    ( 1, 0, 0, 1, 1 ) 0.5, 0.5;
    ( 1, 0, 1, 0, 0 ) 0.5, 0.5;
    ( 1, 0, 1, 0, 1 ) 0.5, 0.5;
    ( 1, 0, 1, 1, 0 ) 0.5, 0.5;
    ( 1, 0, 1, 1, 1 ) 0.5, 0.5;
    ( 1, 1, 0, 0, 0 ) 0.5, 0.5;
    ( 1, 1, 0, 0, 1 ) 0.5, 0.5;
    ( 1, 1, 0, 1, 0 ) 0.5, 0.5;
    ( 1, 1, 0, 1, 1 ) 0.5, 0.5;
    ( 1, 1, 1, 0, 0 ) 0.5, 0.5;
    ( 1, 1, 1, 0, 1 ) 0.5, 0.5;
    ( 1, 1, 1, 1, 0 ) 0.5, 0.5;
    ( 1, 1, 1, 1, 1 ) 0.5, 0.5;

}
probability ( VIOLATIONS_ON_HYGIENE_AND_FOOD_SECURITY | NO_VIOLATIONS ) {
    ( 0 ) 0.8872387822212793, 0.1127612177787207;
    ( 1 ) 1.0, 0.0;

}
probability ( VIOLATIONS_ON_INSTRUMENT_STORAGE_AND_MAINTENANCE | NO_VIOLATIONS, VIOLATIONS_ON_FACILITIES_AND_REGULATIONS, VIOLATIONS_ON_HYGIENE_AND_FOOD_SECURITY, VIOLATIONS_ON_MANAGEMENT_AND_SUPERVISION, VIOLATIONS_ON_TEMPERATURE_AND_SPECIAL_PROCEDURES ) {
    ( 0, 0, 0, 0, 0 ) 0.3231939163498099, 0.6768060836501901;
    ( 0, 0, 0, 0, 1 ) 0.40625, 0.59375;
    ( 0, 0, 0, 1, 0 ) 0.6872427983539094, 0.31275720164609055;
    ( 0, 0, 0, 1, 1 ) 0.3055555555555556, 0.6944444444444444;
    ( 0, 0, 1, 0, 0 ) 0.5901639344262295, 0.4098360655737705;
    ( 0, 0, 1, 0, 1 ) 0.6, 0.4;
    ( 0, 0, 1, 1, 0 ) 0.48148148148148145, 0.5185185185185185;
    ( 0, 0, 1, 1, 1 ) 0.1111111111111111, 0.8888888888888888;
    ( 0, 1, 0, 0, 0 ) 0.5070332480818415, 0.4929667519181586;
    ( 0, 1, 0, 0, 1 ) 0.26813880126182965, 0.7318611987381703;
    ( 0, 1, 0, 1, 0 ) 0.3654970760233918, 0.6345029239766082;
    ( 0, 1, 0, 1, 1 ) 0.1549953314659197, 0.8450046685340803;
    ( 0, 1, 1, 0, 0 ) 0.2904761904761905, 0.7095238095238096;
    ( 0, 1, 1, 0, 1 ) 0.0759493670886076, 0.9240506329113924;
    ( 0, 1, 1, 1, 0 ) 0.19345238095238096, 0.8065476190476191;
    ( 0, 1, 1, 1, 1 ) 0.08459214501510574, 0.9154078549848943;
    ( 1, 0, 0, 0, 0 ) 1.0, 0.0;
    ( 1, 0, 0, 0, 1 ) 0.5, 0.5;
    ( 1, 0, 0, 1, 0 ) 0.5, 0.5;
    ( 1, 0, 0, 1, 1 ) 0.5, 0.5;
    ( 1, 0, 1, 0, 0 ) 0.5, 0.5;
    ( 1, 0, 1, 0, 1 ) 0.5, 0.5;
    ( 1, 0, 1, 1, 0 ) 0.5, 0.5;
    ( 1, 0, 1, 1, 1 ) 0.5, 0.5;
    ( 1, 1, 0, 0, 0 ) 0.5, 0.5;
    ( 1, 1, 0, 0, 1 ) 0.5, 0.5;
    ( 1, 1, 0, 1, 0 ) 0.5, 0.5;
    ( 1, 1, 0, 1, 1 ) 0.5, 0.5;
    ( 1, 1, 1, 0, 0 ) 0.5, 0.5;
    ( 1, 1, 1, 0, 1 ) 0.5, 0.5;
    ( 1, 1, 1, 1, 0 ) 0.5, 0.5;
    ( 1, 1, 1, 1, 1 ) 0.5, 0.5;

}
probability ( VIOLATIONS_ON_MANAGEMENT_AND_SUPERVISION | NO_VIOLATIONS, VIOLATIONS_ON_FACILITIES_AND_REGULATIONS, VIOLATIONS_ON_HYGIENE_AND_FOOD_SECURITY ) {
    ( 0, 0, 0 ) 0.5305755395683454, 0.4694244604316547;
    ( 0, 0, 1 ) 0.6635514018691588, 0.3364485981308411;
    ( 0, 1, 0 ) 0.47504136789851076, 0.5249586321014893;
    ( 0, 1, 1 ) 0.3023012552301255, 0.6976987447698745;
    ( 1, 0, 0 ) 1.0, 0.0;
    ( 1, 0, 1 ) 0.5, 0.5;
    ( 1, 1, 0 ) 0.5, 0.5;
    ( 1, 1, 1 ) 0.5, 0.5;

}
probability ( VIOLATIONS_ON_TEMPERATURE_AND_SPECIAL_PROCEDURES | HAS_INSP_SERIOUS_VIOL, VIOLATIONS_ON_FACILITIES_AND_REGULATIONS, VIOLATIONS_ON_HYGIENE_AND_FOOD_SECURITY, VIOLATIONS_ON_MANAGEMENT_AND_SUPERVISION ) {
    ( 0, 0, 0, 0 ) 1.0, 0.0;
    ( 0, 0, 0, 1 ) 0.5, 0.5;
    ( 0, 0, 1, 0 ) 0.5, 0.5;
    ( 0, 0, 1, 1 ) 0.5, 0.5;
    ( 0, 1, 0, 0 ) 1.0, 0.0;
    ( 0, 1, 0, 1 ) 0.5, 0.5;
    ( 0, 1, 1, 0 ) 0.5, 0.5;
    ( 0, 1, 1, 1 ) 0.5, 0.5;
    ( 1, 0, 0, 0 ) 0.0, 1.0;
    ( 1, 0, 0, 1 ) 0.9310344827586207, 0.06896551724137931;
    ( 1, 0, 1, 0 ) 0.8591549295774648, 0.14084507042253522;
    ( 1, 0, 1, 1 ) 0.75, 0.25;
    ( 1, 1, 0, 0 ) 0.0, 1.0;
    ( 1, 1, 0, 1 ) 0.7186761229314421, 0.28132387706855794;
    ( 1, 1, 1, 0 ) 0.726643598615917, 0.27335640138408307;
    ( 1, 1, 1, 1 ) 0.5037481259370314, 0.4962518740629685;

}
